<?xml version="1.0"?>
<opencv_storage>
<cascade>
  <stageType>BOOST</stageType>
  <featureType>HAAR</featureType>
  <height>20</height>
  <width>20</width>
  <stageParams>
    <boostType>GAB</boostType>
    <minHitRate>9.9500000476837158e-01</minHitRate>
    <maxFalseAlarm>5.0000000000000000e-01</maxFalseAlarm>
    <weightTrimRate>9.4999999999999996e-01</weightTrimRate>
    <maxDepth>1</maxDepth>
    <maxWeakCount>100</maxWeakCount></stageParams>
  <featureParams>
    <maxCatCount>0</maxCatCount>
    <featSize>1</featSize>
    <mode>BASIC</mode></featureParams>
  <stageNum>9</stageNum>
  <stages>
    <!-- stage 0 -->
    <_>
      <maxWeakCount>4</maxWeakCount>
      <stageThreshold>-1.1580476760864258e+00</stageThreshold>
      <weakClassifiers>
        <_>
          <internalNodes>
            0 -1 48 2.2452016128227115e-04</internalNodes>
          <leafValues>
            -8.0848485231399536e-01 7.6643675565719604e-01</leafValues></_>
        <_>
          <internalNodes>
            0 -1 5 7.9012359492480755e-04</internalNodes>
          <leafValues>
            -6.7785012722015381e-01 6.7841458320617676e-01</leafValues></_>
        <_>
          <internalNodes>
            0 -1 52 -2.4747347924858332e-04</internalNodes>
          <leafValues>
            4.7542056441307068e-01 -8.2525867223739624e-01</leafValues></_>
        <_>
          <internalNodes>
            0 -1 24 -1.2667574919760227e-03</internalNodes>
          <leafValues>
            7.6919001340866089e-01 -4.2137569189071655e-01</leafValues></_></weakClassifiers></_>
    <!-- stage 1 -->
    <_>
      <maxWeakCount>4</maxWeakCount>
      <stageThreshold>-1.0542281866073608e+00</stageThreshold>
      <weakClassifiers>
        <_>
          <internalNodes>
            0 -1 6 1.8370061879977584e-03</internalNodes>
          <leafValues>
            -4.4454976916313171e-01 7.5526994466781616e-01</leafValues></_>
        <_>
          <internalNodes>
            0 -1 53 -1.3269984629005194e-04</internalNodes>
          <leafValues>
            4.8049646615982056e-01 -8.0383843183517456e-01</leafValues></_>
        <_>
          <internalNodes>
            0 -1 30 7.5569655746221542e-04</internalNodes>
          <leafValues>
            -5.0236850976943970e-01 6.2352955341339111e-01</leafValues></_>
        <_>
          <internalNodes>
            0 -1 35 -1.5580651233904064e-04</internalNodes>
          <leafValues>
            4.7383195161819458e-01 -5.8780640363693237e-01</leafValues></_></weakClassifiers></_>
    <!-- stage 2 -->
    <_>
      <maxWeakCount>5</maxWeakCount>
      <stageThreshold>-7.9568588733673096e-01</stageThreshold>
      <weakClassifiers>
        <_>
          <internalNodes>
            0 -1 11 6.0492032207548618e-04</internalNodes>
          <leafValues>
            -4.1739979386329651e-01 7.2180068492889404e-01</leafValues></_>
        <_>
          <internalNodes>
            0 -1 37 -8.4928137948736548e-04</internalNodes>
          <leafValues>
            6.6663324832916260e-01 -4.2813688516616821e-01</leafValues></_>
        <_>
          <internalNodes>
            0 -1 2 5.5816734675318003e-04</internalNodes>
          <leafValues>
            -4.2585656046867371e-01 5.6133222579956055e-01</leafValues></_>
        <_>
          <internalNodes>
            0 -1 47 -2.1579929161816835e-03</internalNodes>
          <leafValues>
            -9.4973558187484741e-01 2.5579643249511719e-01</leafValues></_>
        <_>
          <internalNodes>
            0 -1 47 2.0691975951194763e-03</internalNodes>
          <leafValues>
            2.1991091966629028e-01 -9.4226902723312378e-01</leafValues></_></weakClassifiers></_>
    <!-- stage 3 -->
    <_>
      <maxWeakCount>7</maxWeakCount>
      <stageThreshold>-1.0061718225479126e+00</stageThreshold>
      <weakClassifiers>
        <_>
          <internalNodes>
            0 -1 44 -1.8846967723220587e-03</internalNodes>
          <leafValues>
            8.4827584028244019e-01 -1.4838708937168121e-01</leafValues></_>
        <_>
          <internalNodes>
            0 -1 21 2.2092144936323166e-03</internalNodes>
          <leafValues>
            3.5030478239059448e-01 -8.8814085721969604e-01</leafValues></_>
        <_>
          <internalNodes>
            0 -1 15 -2.8877300792373717e-04</internalNodes>
          <leafValues>
            3.4071332216262817e-01 -5.9857130050659180e-01</leafValues></_>
        <_>
          <internalNodes>
            0 -1 21 -1.6674529761075974e-03</internalNodes>
          <leafValues>
            -8.8921028375625610e-01 2.5240492820739746e-01</leafValues></_>
        <_>
          <internalNodes>
            0 -1 0 -2.2842274047434330e-03</internalNodes>
          <leafValues>
            4.9385783076286316e-01 -4.5747470855712891e-01</leafValues></_>
        <_>
          <internalNodes>
            0 -1 46 -5.0403967179590836e-05</internalNodes>
          <leafValues>
            2.4582804739475250e-01 -7.3356330394744873e-01</leafValues></_>
        <_>
          <internalNodes>
            0 -1 8 3.9817596552893519e-04</internalNodes>
          <leafValues>
            -5.1101005077362061e-01 3.2911494374275208e-01</leafValues></_></weakClassifiers></_>
    <!-- stage 4 -->
    <_>
      <maxWeakCount>7</maxWeakCount>
      <stageThreshold>-6.4805668592453003e-01</stageThreshold>
      <weakClassifiers>
        <_>
          <internalNodes>
            0 -1 45 -6.2817020807415247e-04</internalNodes>
          <leafValues>
            -8.2110089063644409e-01 5.2964121103286743e-01</leafValues></_>
        <_>
          <internalNodes>
            0 -1 41 -6.9155972450971603e-03</internalNodes>
          <leafValues>
            7.0150834321975708e-01 -3.8623252511024475e-01</leafValues></_>
        <_>
          <internalNodes>
            0 -1 55 3.5377786844037473e-04</internalNodes>
          <leafValues>
            2.9123285412788391e-01 -8.5929375886917114e-01</leafValues></_>
        <_>
          <internalNodes>
            0 -1 54 3.6432908382266760e-04</internalNodes>
          <leafValues>
            1.8001966178417206e-01 -9.1904890537261963e-01</leafValues></_>
        <_>
          <internalNodes>
            0 -1 33 -8.8119984138756990e-04</internalNodes>
          <leafValues>
            4.5830017328262329e-01 -4.3925857543945312e-01</leafValues></_>
        <_>
          <internalNodes>
            0 -1 27 2.3087083827704191e-03</internalNodes>
          <leafValues>
            1.9381019473075867e-01 -9.0083742141723633e-01</leafValues></_>
        <_>
          <internalNodes>
            0 -1 26 -1.3062458019703627e-03</internalNodes>
          <leafValues>
            -9.5437836647033691e-01 1.3325715065002441e-01</leafValues></_></weakClassifiers></_>
    <!-- stage 5 -->
    <_>
      <maxWeakCount>10</maxWeakCount>
      <stageThreshold>-8.4257376194000244e-01</stageThreshold>
      <weakClassifiers>
        <_>
          <internalNodes>
            0 -1 28 -2.4133571423590183e-03</internalNodes>
          <leafValues>
            8.0484610795974731e-01 -1.5546503663063049e-01</leafValues></_>
        <_>
          <internalNodes>
            0 -1 43 -1.3283974258229136e-03</internalNodes>
          <leafValues>
            6.6507774591445923e-01 -2.3768123984336853e-01</leafValues></_>
        <_>
          <internalNodes>
            0 -1 4 1.2239973293617368e-03</internalNodes>
          <leafValues>
            2.3966866731643677e-01 -8.0666577816009521e-01</leafValues></_>
        <_>
          <internalNodes>
            0 -1 3 1.3232401106506586e-03</internalNodes>
          <leafValues>
            1.6307254135608673e-01 -8.8677978515625000e-01</leafValues></_>
        <_>
          <internalNodes>
            0 -1 12 4.3382350122556090e-04</internalNodes>
          <leafValues>
            -5.4463165998458862e-01 3.0600580573081970e-01</leafValues></_>
        <_>
          <internalNodes>
            0 -1 10 8.1925336271524429e-03</internalNodes>
          <leafValues>
            1.4180675148963928e-01 -9.1735208034515381e-01</leafValues></_>
        <_>
          <internalNodes>
            0 -1 29 6.9442356470972300e-04</internalNodes>
          <leafValues>
            1.1993190646171570e-01 -9.1023528575897217e-01</leafValues></_>
        <_>
          <internalNodes>
            0 -1 31 3.9297383045777678e-04</internalNodes>
          <leafValues>
            1.6097478568553925e-01 -7.9986661672592163e-01</leafValues></_>
        <_>
          <internalNodes>
            0 -1 9 -6.0886493884027004e-03</internalNodes>
          <leafValues>
            5.4156756401062012e-01 -3.3859470486640930e-01</leafValues></_>
        <_>
          <internalNodes>
            0 -1 14 -5.8293323963880539e-03</internalNodes>
          <leafValues>
            6.5880417823791504e-01 -3.0563244223594666e-01</leafValues></_></weakClassifiers></_>
    <!-- stage 6 -->
    <_>
      <maxWeakCount>6</maxWeakCount>
      <stageThreshold>-4.3972066044807434e-01</stageThreshold>
      <weakClassifiers>
        <_>
          <internalNodes>
            0 -1 23 2.4900510907173157e-03</internalNodes>
          <leafValues>
            -1.8836140632629395e-01 7.3553717136383057e-01</leafValues></_>
        <_>
          <internalNodes>
            0 -1 12 3.2065273262560368e-04</internalNodes>
          <leafValues>
            -5.2486878633499146e-01 4.2977419495582581e-01</leafValues></_>
        <_>
          <internalNodes>
            0 -1 18 2.5366665795445442e-03</internalNodes>
          <leafValues>
            -3.4557229280471802e-01 5.5147737264633179e-01</leafValues></_>
        <_>
          <internalNodes>
            0 -1 35 -2.8858118457719684e-04</internalNodes>
          <leafValues>
            3.5805377364158630e-01 -4.8540017008781433e-01</leafValues></_>
        <_>
          <internalNodes>
            0 -1 52 -5.2203575614839792e-04</internalNodes>
          <leafValues>
            2.1818406879901886e-01 -7.4504601955413818e-01</leafValues></_>
        <_>
          <internalNodes>
            0 -1 51 -4.5018810778856277e-03</internalNodes>
          <leafValues>
            -9.1179901361465454e-01 1.4335340261459351e-01</leafValues></_></weakClassifiers></_>
    <!-- stage 7 -->
    <_>
      <maxWeakCount>10</maxWeakCount>
      <stageThreshold>-1.1023941040039062e+00</stageThreshold>
      <weakClassifiers>
        <_>
          <internalNodes>
            0 -1 38 1.5759239904582500e-03</internalNodes>
          <leafValues>
            -7.9306073486804962e-02 8.1385278701782227e-01</leafValues></_>
        <_>
          <internalNodes>
            0 -1 1 3.1080604530870914e-03</internalNodes>
          <leafValues>
            -4.2613705992698669e-01 4.5763805508613586e-01</leafValues></_>
        <_>
          <internalNodes>
            0 -1 48 3.1509061227552593e-04</internalNodes>
          <leafValues>
            -7.3913449048995972e-01 2.7277243137359619e-01</leafValues></_>
        <_>
          <internalNodes>
            0 -1 34 -2.6218860875815153e-03</internalNodes>
          <leafValues>
            4.9811458587646484e-01 -3.3788663148880005e-01</leafValues></_>
        <_>
          <internalNodes>
            0 -1 22 -2.6400929782539606e-03</internalNodes>
          <leafValues>
            -9.0751469135284424e-01 1.9210509955883026e-01</leafValues></_>
        <_>
          <internalNodes>
            0 -1 7 -2.3496335779782385e-04</internalNodes>
          <leafValues>
            2.8234606981277466e-01 -5.1756733655929565e-01</leafValues></_>
        <_>
          <internalNodes>
            0 -1 22 2.1743751130998135e-03</internalNodes>
          <leafValues>
            1.4002540707588196e-01 -8.6914908885955811e-01</leafValues></_>
        <_>
          <internalNodes>
            0 -1 49 1.8547845538705587e-03</internalNodes>
          <leafValues>
            1.3927078247070312e-01 -8.4257030487060547e-01</leafValues></_>
        <_>
          <internalNodes>
            0 -1 42 4.6412873780354857e-04</internalNodes>
          <leafValues>
            -4.1614177823066711e-01 3.0072921514511108e-01</leafValues></_>
        <_>
          <internalNodes>
            0 -1 25 8.2476821262389421e-04</internalNodes>
          <leafValues>
            1.3693200051784515e-01 -8.8351011276245117e-01</leafValues></_></weakClassifiers></_>
    <!-- stage 8 -->
    <_>
      <maxWeakCount>12</maxWeakCount>
      <stageThreshold>-1.0921409130096436e+00</stageThreshold>
      <weakClassifiers>
        <_>
          <internalNodes>
            0 -1 17 2.2096568718552589e-03</internalNodes>
          <leafValues>
            -1.0711817443370819e-01 7.4372184276580811e-01</leafValues></_>
        <_>
          <internalNodes>
            0 -1 40 1.0849835816770792e-03</internalNodes>
          <leafValues>
            -2.6887795329093933e-01 6.0018700361251831e-01</leafValues></_>
        <_>
          <internalNodes>
            0 -1 50 1.0916800238192081e-03</internalNodes>
          <leafValues>
            1.9850370287895203e-01 -8.3558541536331177e-01</leafValues></_>
        <_>
          <internalNodes>
            0 -1 39 6.7594926804304123e-04</internalNodes>
          <leafValues>
            -4.0064269304275513e-01 4.1994556784629822e-01</leafValues></_>
        <_>
          <internalNodes>
            0 -1 50 -8.7451410945504904e-04</internalNodes>
          <leafValues>
            -8.2565629482269287e-01 1.8068331480026245e-01</leafValues></_>
        <_>
          <internalNodes>
            0 -1 16 -7.3652554419822991e-05</internalNodes>
          <leafValues>
            2.0497584342956543e-01 -5.5098187923431396e-01</leafValues></_>
        <_>
          <internalNodes>
            0 -1 16 -1.5795724466443062e-03</internalNodes>
          <leafValues>
            -8.9539110660552979e-01 1.5027360618114471e-01</leafValues></_>
        <_>
          <internalNodes>
            0 -1 36 -1.0770815424621105e-03</internalNodes>
          <leafValues>
            4.3458646535873413e-01 -3.1096270680427551e-01</leafValues></_>
        <_>
          <internalNodes>
            0 -1 19 -6.1323994304984808e-04</internalNodes>
          <leafValues>
            -8.0800384283065796e-01 1.3023333251476288e-01</leafValues></_>
        <_>
          <internalNodes>
            0 -1 32 6.3418294303119183e-04</internalNodes>
          <leafValues>
            -4.3617206811904907e-01 2.8839701414108276e-01</leafValues></_>
        <_>
          <internalNodes>
            0 -1 20 5.1441678078845143e-04</internalNodes>
          <leafValues>
            1.7158919572830200e-01 -6.6519290208816528e-01</leafValues></_>
        <_>
          <internalNodes>
            0 -1 13 -5.9267540927976370e-04</internalNodes>
          <leafValues>
            3.4655168652534485e-01 -3.4836918115615845e-01</leafValues></_></weakClassifiers></_></stages>
  <features>
    <_>
      <rects>
        <_>
          0 5 3 2 -1.</_>
        <_>
          1 5 1 2 3.</_></rects>
      <tilted>0</tilted></_>
    <_>
      <rects>
        <_>
          0 6 2 7 -1.</_>
        <_>
          1 6 1 7 2.</_></rects>
      <tilted>0</tilted></_>
    <_>
      <rects>
        <_>
          0 7 2 2 -1.</_>
        <_>
          1 7 1 2 2.</_></rects>
      <tilted>0</tilted></_>
    <_>
      <rects>
        <_>
          0 8 1 3 -1.</_>
        <_>
          0 9 1 1 3.</_></rects>
      <tilted>0</tilted></_>
    <_>
      <rects>
        <_>
          0 9 1 3 -1.</_>
        <_>
          0 10 1 1 3.</_></rects>
      <tilted>0</tilted></_>
    <_>
      <rects>
        <_>
          0 9 2 2 -1.</_>
        <_>
          1 9 1 2 2.</_></rects>
      <tilted>0</tilted></_>
    <_>
      <rects>
        <_>
          0 9 2 4 -1.</_>
        <_>
          1 9 1 4 2.</_></rects>
      <tilted>0</tilted></_>
    <_>
      <rects>
        <_>
          0 10 2 3 -1.</_>
        <_>
          0 11 2 1 3.</_></rects>
      <tilted>0</tilted></_>
    <_>
      <rects>
        <_>
          0 12 2 1 -1.</_>
        <_>
          1 12 1 1 2.</_></rects>
      <tilted>0</tilted></_>
    <_>
      <rects>
        <_>
          0 19 12 1 -1.</_>
        <_>
          6 19 6 1 2.</_></rects>
      <tilted>0</tilted></_>
    <_>
      <rects>
        <_>
          1 6 1 10 -1.</_>
        <_>
          1 11 1 5 2.</_></rects>
      <tilted>0</tilted></_>
    <_>
      <rects>
        <_>
          1 7 1 4 -1.</_>
        <_>
          1 9 1 2 2.</_></rects>
      <tilted>0</tilted></_>
    <_>
      <rects>
        <_>
          1 8 1 2 -1.</_>
        <_>
          1 9 1 1 2.</_></rects>
      <tilted>0</tilted></_>
    <_>
      <rects>
        <_>
          1 8 2 2 -1.</_>
        <_>
          1 8 1 1 2.</_>
        <_>
          2 9 1 1 2.</_></rects>
      <tilted>0</tilted></_>
    <_>
      <rects>
        <_>
          1 8 3 4 -1.</_>
        <_>
          2 8 1 4 3.</_></rects>
      <tilted>0</tilted></_>
    <_>
      <rects>
        <_>
          1 10 1 2 -1.</_>
        <_>
          1 11 1 1 2.</_></rects>
      <tilted>0</tilted></_>
    <_>
      <rects>
        <_>
          1 13 1 2 -1.</_>
        <_>
          1 14 1 1 2.</_></rects>
      <tilted>0</tilted></_>
    <_>
      <rects>
        <_>
          3 1 4 2 -1.</_>
        <_>
          3 1 2 1 2.</_>
        <_>
          5 2 2 1 2.</_></rects>
      <tilted>0</tilted></_>
    <_>
      <rects>
        <_>
          3 18 3 2 -1.</_>
        <_>
          3 19 3 1 2.</_></rects>
      <tilted>0</tilted></_>
    <_>
      <rects>
        <_>
          7 19 2 1 -1.</_>
        <_>
          8 19 1 1 2.</_></rects>
      <tilted>0</tilted></_>
    <_>
      <rects>
        <_>
          7 19 3 1 -1.</_>
        <_>
          8 19 1 1 3.</_></rects>
      <tilted>0</tilted></_>
    <_>
      <rects>
        <_>
          7 19 6 1 -1.</_>
        <_>
          9 19 2 1 3.</_></rects>
      <tilted>0</tilted></_>
    <_>
      <rects>
        <_>
          8 0 4 1 -1.</_>
        <_>
          10 0 2 1 2.</_></rects>
      <tilted>0</tilted></_>
    <_>
      <rects>
        <_>
          8 0 4 2 -1.</_>
        <_>
          8 1 4 1 2.</_></rects>
      <tilted>0</tilted></_>
    <_>
      <rects>
        <_>
          8 18 1 2 -1.</_>
        <_>
          8 19 1 1 2.</_></rects>
      <tilted>0</tilted></_>
    <_>
      <rects>
        <_>
          8 19 3 1 -1.</_>
        <_>
          9 19 1 1 3.</_></rects>
      <tilted>0</tilted></_>
    <_>
      <rects>
        <_>
          8 19 4 1 -1.</_>
        <_>
          10 19 2 1 2.</_></rects>
      <tilted>0</tilted></_>
    <_>
      <rects>
        <_>
          8 19 6 1 -1.</_>
        <_>
          10 19 2 1 3.</_></rects>
      <tilted>0</tilted></_>
    <_>
      <rects>
        <_>
          10 18 3 2 -1.</_>
        <_>
          10 19 3 1 2.</_></rects>
      <tilted>0</tilted></_>
    <_>
      <rects>
        <_>
          10 19 3 1 -1.</_>
        <_>
          11 19 1 1 3.</_></rects>
      <tilted>0</tilted></_>
    <_>
      <rects>
        <_>
          11 0 1 2 -1.</_>
        <_>
          11 1 1 1 2.</_></rects>
      <tilted>0</tilted></_>
    <_>
      <rects>
        <_>
          11 19 2 1 -1.</_>
        <_>
          12 19 1 1 2.</_></rects>
      <tilted>0</tilted></_>
    <_>
      <rects>
        <_>
          12 17 1 3 -1.</_>
        <_>
          12 18 1 1 3.</_></rects>
      <tilted>0</tilted></_>
    <_>
      <rects>
        <_>
          12 18 1 2 -1.</_>
        <_>
          12 19 1 1 2.</_></rects>
      <tilted>0</tilted></_>
    <_>
      <rects>
        <_>
          13 0 2 3 -1.</_>
        <_>
          13 1 2 1 3.</_></rects>
      <tilted>0</tilted></_>
    <_>
      <rects>
        <_>
          13 18 1 2 -1.</_>
        <_>
          13 19 1 1 2.</_></rects>
      <tilted>0</tilted></_>
    <_>
      <rects>
        <_>
          14 1 2 2 -1.</_>
        <_>
          14 1 1 1 2.</_>
        <_>
          15 2 1 1 2.</_></rects>
      <tilted>0</tilted></_>
    <_>
      <rects>
        <_>
          14 17 2 2 -1.</_>
        <_>
          14 18 2 1 2.</_></rects>
      <tilted>0</tilted></_>
    <_>
      <rects>
        <_>
          16 16 2 2 -1.</_>
        <_>
          16 16 1 1 2.</_>
        <_>
          17 17 1 1 2.</_></rects>
      <tilted>0</tilted></_>
    <_>
      <rects>
        <_>
          17 8 2 2 -1.</_>
        <_>
          17 8 1 1 2.</_>
        <_>
          18 9 1 1 2.</_></rects>
      <tilted>0</tilted></_>
    <_>
      <rects>
        <_>
          17 15 2 2 -1.</_>
        <_>
          17 15 1 1 2.</_>
        <_>
          18 16 1 1 2.</_></rects>
      <tilted>0</tilted></_>
    <_>
      <rects>
        <_>
          18 3 2 8 -1.</_>
        <_>
          18 3 1 4 2.</_>
        <_>
          19 7 1 4 2.</_></rects>
      <tilted>0</tilted></_>
    <_>
      <rects>
        <_>
          18 6 1 3 -1.</_>
        <_>
          18 7 1 1 3.</_></rects>
      <tilted>0</tilted></_>
    <_>
      <rects>
        <_>
          18 9 2 1 -1.</_>
        <_>
          19 9 1 1 2.</_></rects>
      <tilted>0</tilted></_>
    <_>
      <rects>
        <_>
          18 9 2 2 -1.</_>
        <_>
          19 9 1 2 2.</_></rects>
      <tilted>0</tilted></_>
    <_>
      <rects>
        <_>
          19 7 1 2 -1.</_>
        <_>
          19 8 1 1 2.</_></rects>
      <tilted>0</tilted></_>
    <_>
      <rects>
        <_>
          19 7 1 3 -1.</_>
        <_>
          19 8 1 1 3.</_></rects>
      <tilted>0</tilted></_>
    <_>
      <rects>
        <_>
          19 7 1 6 -1.</_>
        <_>
          19 10 1 3 2.</_></rects>
      <tilted>0</tilted></_>
    <_>
      <rects>
        <_>
          19 8 1 2 -1.</_>
        <_>
          19 9 1 1 2.</_></rects>
      <tilted>0</tilted></_>
    <_>
      <rects>
        <_>
          19 8 1 3 -1.</_>
        <_>
          19 9 1 1 3.</_></rects>
      <tilted>0</tilted></_>
    <_>
      <rects>
        <_>
          19 8 1 4 -1.</_>
        <_>
          19 10 1 2 2.</_></rects>
      <tilted>0</tilted></_>
    <_>
      <rects>
        <_>
          19 8 1 6 -1.</_>
        <_>
          19 11 1 3 2.</_></rects>
      <tilted>0</tilted></_>
    <_>
      <rects>
        <_>
          19 9 1 4 -1.</_>
        <_>
          19 11 1 2 2.</_></rects>
      <tilted>0</tilted></_>
    <_>
      <rects>
        <_>
          19 10 1 2 -1.</_>
        <_>
          19 11 1 1 2.</_></rects>
      <tilted>0</tilted></_>
    <_>
      <rects>
        <_>
          19 10 1 3 -1.</_>
        <_>
          19 11 1 1 3.</_></rects>
      <tilted>0</tilted></_>
    <_>
      <rects>
        <_>
          19 11 1 2 -1.</_>
        <_>
          19 12 1 1 2.</_></rects>
      <tilted>0</tilted></_></features></cascade>
</opencv_storage>
